digraph Tree {
node [shape=box] ;
0 [label="X[33] <= 0.095\nentropy = 1.0\nsamples = 2708\nvalue = [1354.0, 1354.0]"] ;
1 [label="X[3] <= 0.812\nentropy = 0.708\nsamples = 1476\nvalue = [903.545, 215.975]"] ;
0 -> 1 [labeldistance=2.5, labelangle=45, headlabel="True"] ;
2 [label="X[2] <= 0.954\nentropy = 0.615\nsamples = 1450\nvalue = [903.545, 161.982]"] ;
1 -> 2 ;
3 [label="X[5] <= -0.311\nentropy = 0.399\nsamples = 1169\nvalue = [749.442, 64.377]"] ;
2 -> 3 ;
4 [label="entropy = 0.067\nsamples = 391\nvalue = [256.839, 2.077]"] ;
3 -> 4 ;
9 [label="X[4] <= 5.635\nentropy = 0.507\nsamples = 778\nvalue = [492.603, 62.301]"] ;
3 -> 9 ;
10 [label="X[48] <= 1.098\nentropy = 0.476\nsamples = 775\nvalue = [492.603, 56.071]"] ;
9 -> 10 ;
11 [label="entropy = 0.404\nsamples = 741\nvalue = [474.822, 41.534]"] ;
10 -> 11 ;
56 [label="X[0] <= -0.501\nentropy = 0.993\nsamples = 34\nvalue = [17.781, 14.537]"] ;
10 -> 56 ;
57 [label="entropy = 0.0\nsamples = 12\nvalue = [7.903, 0.0]"] ;
56 -> 57 ;
58 [label="X[1] <= 0.723\nentropy = 0.974\nsamples = 22\nvalue = [9.878, 14.537]"] ;
56 -> 58 ;
59 [label="X[0] <= 0.881\nentropy = 0.995\nsamples = 19\nvalue = [9.878, 8.307]"] ;
58 -> 59 ;
60 [label="X[64] <= 0.344\nentropy = 0.98\nsamples = 13\nvalue = [5.927, 8.307]"] ;
59 -> 60 ;
61 [label="entropy = 0.0\nsamples = 2\nvalue = [0.0, 4.153]"] ;
60 -> 61 ;
62 [label="X[23] <= 2.198\nentropy = 0.978\nsamples = 11\nvalue = [5.927, 4.153]"] ;
60 -> 62 ;
63 [label="entropy = 0.0\nsamples = 6\nvalue = [3.951, 0.0]"] ;
62 -> 63 ;
64 [label="entropy = 0.907\nsamples = 5\nvalue = [1.976, 4.153]"] ;
62 -> 64 ;
69 [label="entropy = -0.0\nsamples = 6\nvalue = [3.951, 0.0]"] ;
59 -> 69 ;
70 [label="entropy = 0.0\nsamples = 3\nvalue = [0.0, 6.23]"] ;
58 -> 70 ;
71 [label="entropy = 0.0\nsamples = 3\nvalue = [0.0, 6.23]"] ;
9 -> 71 ;
72 [label="entropy = 0.963\nsamples = 281\nvalue = [154.103, 97.604]"] ;
2 -> 72 ;
135 [label="entropy = 0.0\nsamples = 26\nvalue = [0.0, 53.994]"] ;
1 -> 135 ;
136 [label="X[2] <= 0.954\nentropy = 0.86\nsamples = 1232\nvalue = [450.455, 1138.025]"] ;
0 -> 136 [labeldistance=2.5, labelangle=-45, headlabel="False"] ;
137 [label="X[3] <= 0.539\nentropy = 0.969\nsamples = 868\nvalue = [385.916, 585.626]"] ;
136 -> 137 ;
138 [label="X[0] <= -0.355\nentropy = 0.99\nsamples = 820\nvalue = [385.258, 488.021]"] ;
137 -> 138 ;
139 [label="entropy = 0.954\nsamples = 226\nvalue = [125.126, 74.761]"] ;
138 -> 139 ;
180 [label="X[2] <= -1.009\nentropy = 0.962\nsamples = 594\nvalue = [260.131, 413.261]"] ;
138 -> 180 ;
181 [label="entropy = 0.884\nsamples = 91\nvalue = [52.685, 22.844]"] ;
180 -> 181 ;
206 [label="X[5] <= 0.691\nentropy = 0.931\nsamples = 503\nvalue = [207.446, 390.417]"] ;
180 -> 206 ;
207 [label="X[46] <= 1.24\nentropy = 0.97\nsamples = 376\nvalue = [167.274, 253.356]"] ;
206 -> 207 ;
208 [label="X[4] <= 4.144\nentropy = 0.954\nsamples = 350\nvalue = [150.81, 251.279]"] ;
207 -> 208 ;
209 [label="X[26] <= 0.376\nentropy = 0.968\nsamples = 333\nvalue = [147.518, 226.359]"] ;
208 -> 209 ;
210 [label="X[3] <= 0.274\nentropy = 0.886\nsamples = 138\nvalue = [52.685, 120.448]"] ;
209 -> 210 ;
211 [label="X[104] <= -1.34\nentropy = 0.87\nsamples = 133\nvalue = [49.392, 120.448]"] ;
210 -> 211 ;
212 [label="entropy = 0.826\nsamples = 10\nvalue = [5.927, 2.077]"] ;
211 -> 212 ;
215 [label="X[61] <= 1.389\nentropy = 0.839\nsamples = 123\nvalue = [43.465, 118.371]"] ;
211 -> 215 ;
216 [label="X[12] <= 1.593\nentropy = 0.871\nsamples = 115\nvalue = [42.806, 103.834]"] ;
215 -> 216 ;
217 [label="entropy = 0.836\nsamples = 103\nvalue = [36.221, 99.681]"] ;
216 -> 217 ;
218 [label="entropy = 0.963\nsamples = 12\nvalue = [6.586, 4.153]"] ;
216 -> 218 ;
219 [label="entropy = 0.257\nsamples = 8\nvalue = [0.659, 14.537]"] ;
215 -> 219 ;
222 [label="entropy = 0.0\nsamples = 5\nvalue = [3.293, 0.0]"] ;
210 -> 222 ;
223 [label="X[5] <= -0.111\nentropy = 0.998\nsamples = 195\nvalue = [94.833, 105.911]"] ;
209 -> 223 ;
224 [label="entropy = 0.0\nsamples = 28\nvalue = [18.44, 0.0]"] ;
223 -> 224 ;
225 [label="entropy = 0.981\nsamples = 167\nvalue = [76.393, 105.911]"] ;
223 -> 225 ;
232 [label="X[4] <= 4.619\nentropy = 0.52\nsamples = 17\nvalue = [3.293, 24.92]"] ;
208 -> 232 ;
233 [label="entropy = 0.287\nsamples = 14\nvalue = [1.317, 24.92]"] ;
232 -> 233 ;
238 [label="entropy = -0.0\nsamples = 3\nvalue = [1.976, 0.0]"] ;
232 -> 238 ;
239 [label="entropy = 0.506\nsamples = 26\nvalue = [16.464, 2.077]"] ;
207 -> 239 ;
242 [label="X[1] <= -0.484\nentropy = 0.772\nsamples = 127\nvalue = [40.172, 137.061]"] ;
206 -> 242 ;
243 [label="X[3] <= 0.274\nentropy = 0.557\nsamples = 50\nvalue = [10.537, 70.607]"] ;
242 -> 243 ;
244 [label="X[5] <= 1.773\nentropy = 0.494\nsamples = 47\nvalue = [8.561, 70.607]"] ;
243 -> 244 ;
245 [label="X[43] <= 2.677\nentropy = 0.588\nsamples = 38\nvalue = [8.561, 51.917]"] ;
244 -> 245 ;
246 [label="X[1] <= -1.462\nentropy = 0.442\nsamples = 29\nvalue = [4.61, 45.687]"] ;
245 -> 246 ;
247 [label="entropy = 0.0\nsamples = 2\nvalue = [1.317, 0.0]"] ;
246 -> 247 ;
248 [label="entropy = 0.355\nsamples = 27\nvalue = [3.293, 45.687]"] ;
246 -> 248 ;
253 [label="entropy = 0.964\nsamples = 9\nvalue = [3.951, 6.23]"] ;
245 -> 253 ;
258 [label="entropy = 0.0\nsamples = 9\nvalue = [0.0, 18.69]"] ;
244 -> 258 ;
259 [label="entropy = 0.0\nsamples = 3\nvalue = [1.976, 0.0]"] ;
243 -> 259 ;
260 [label="entropy = 0.891\nsamples = 77\nvalue = [29.635, 66.454]"] ;
242 -> 260 ;
283 [label="entropy = 0.058\nsamples = 48\nvalue = [0.659, 97.604]"] ;
137 -> 283 ;
288 [label="X[3] <= 0.539\nentropy = 0.483\nsamples = 364\nvalue = [64.539, 552.399]"] ;
136 -> 288 ;
289 [label="X[5] <= -1.473\nentropy = 0.537\nsamples = 320\nvalue = [64.539, 461.025]"] ;
288 -> 289 ;
290 [label="X[10] <= -0.446\nentropy = 0.998\nsamples = 18\nvalue = [9.22, 8.307]"] ;
289 -> 290 ;
291 [label="X[0] <= -0.537\nentropy = 0.94\nsamples = 11\nvalue = [4.61, 8.307]"] ;
290 -> 291 ;
292 [label="entropy = 0.0\nsamples = 3\nvalue = [1.976, 0.0]"] ;
291 -> 292 ;
293 [label="X[6] <= 2.005\nentropy = 0.796\nsamples = 8\nvalue = [2.634, 8.307]"] ;
291 -> 293 ;
294 [label="X[41] <= 1.194\nentropy = 0.379\nsamples = 5\nvalue = [0.659, 8.307]"] ;
293 -> 294 ;
295 [label="entropy = 0.0\nsamples = 4\nvalue = [0.0, 8.307]"] ;
294 -> 295 ;
296 [label="entropy = 0.0\nsamples = 1\nvalue = [0.659, 0.0]"] ;
294 -> 296 ;
297 [label="entropy = 0.0\nsamples = 3\nvalue = [1.976, 0.0]"] ;
293 -> 297 ;
298 [label="entropy = -0.0\nsamples = 7\nvalue = [4.61, 0.0]"] ;
290 -> 298 ;
299 [label="X[0] <= -0.865\nentropy = 0.497\nsamples = 302\nvalue = [55.319, 452.718]"] ;
289 -> 299 ;
300 [label="entropy = 0.963\nsamples = 12\nvalue = [6.586, 4.153]"] ;
299 -> 300 ;
303 [label="entropy = 0.463\nsamples = 290\nvalue = [48.733, 448.564]"] ;
299 -> 303 ;
346 [label="entropy = 0.0\nsamples = 44\nvalue = [0.0, 91.374]"] ;
288 -> 346 ;
}